digraph Tree {
node [shape=box, style="filled, rounded", color="black", fontname=helvetica] ;
edge [fontname=helvetica] ;
0 [label=<ft2 &le; 1423.5<br/>mse = 1778569.0534<br/>samples = 47<br/>value = 1373.1263>, fillcolor="#e5813937"] ;
1 [label=<sizeGB &le; 2.6<br/>mse = 3300.3937<br/>samples = 17<br/>value = 99.4712>, fillcolor="#e5813903"] ;
0 -> 1 [labeldistance=2.5, labelangle=45, headlabel="True"] ;
2 [label=<sizeGB &le; 1.45<br/>mse = 776.1588<br/>samples = 9<br/>value = 56.5371>, fillcolor="#e5813901"] ;
1 -> 2 ;
3 [label=<sizeGB &le; 0.87<br/>mse = 144.5549<br/>samples = 4<br/>value = 32.0571>, fillcolor="#e5813900"] ;
2 -> 3 ;
4 [label=<ppn &le; 5.0<br/>mse = 0.0081<br/>samples = 3<br/>value = 21.645>, fillcolor="#e5813900"] ;
3 -> 4 ;
5 [label=<mse = 0.0<br/>samples = 1<br/>value = 21.8>, fillcolor="#e5813900"] ;
4 -> 5 ;
6 [label=<ppn &le; 9.5<br/>mse = 0.0001<br/>samples = 2<br/>value = 21.5933>, fillcolor="#e5813900"] ;
4 -> 6 ;
7 [label=<mse = 0.0<br/>samples = 1<br/>value = 21.6>, fillcolor="#e5813900"] ;
6 -> 7 ;
8 [label=<mse = 0.0<br/>samples = 1<br/>value = 21.58>, fillcolor="#e5813900"] ;
6 -> 8 ;
9 [label=<mse = 0.0<br/>samples = 1<br/>value = 45.94>, fillcolor="#e5813901"] ;
3 -> 9 ;
10 [label=<sizeGB &le; 2.0<br/>mse = 209.222<br/>samples = 5<br/>value = 81.0171>, fillcolor="#e5813902"] ;
2 -> 10 ;
11 [label=<ppn &le; 6.5<br/>mse = 0.0969<br/>samples = 3<br/>value = 68.4925>, fillcolor="#e5813902"] ;
10 -> 11 ;
12 [label=<ppn &le; 3.5<br/>mse = 0.0032<br/>samples = 2<br/>value = 68.67>, fillcolor="#e5813902"] ;
11 -> 12 ;
13 [label=<mse = 0.0<br/>samples = 1<br/>value = 68.75>, fillcolor="#e5813902"] ;
12 -> 13 ;
14 [label=<mse = 0.0<br/>samples = 1<br/>value = 68.63>, fillcolor="#e5813902"] ;
12 -> 14 ;
15 [label=<mse = 0.0<br/>samples = 1<br/>value = 67.96>, fillcolor="#e5813902"] ;
11 -> 15 ;
16 [label=<ppn &le; 5.0<br/>mse = 0.0257<br/>samples = 2<br/>value = 97.7167>, fillcolor="#e5813903"] ;
10 -> 16 ;
17 [label=<mse = 0.0<br/>samples = 1<br/>value = 97.49>, fillcolor="#e5813903"] ;
16 -> 17 ;
18 [label=<mse = 0.0<br/>samples = 1<br/>value = 97.83>, fillcolor="#e5813903"] ;
16 -> 18 ;
19 [label=<sizeGB &le; 3.7<br/>mse = 1181.1006<br/>samples = 8<br/>value = 154.1145>, fillcolor="#e5813905"] ;
1 -> 19 ;
20 [label=<sizeGB &le; 3.15<br/>mse = 107.4359<br/>samples = 5<br/>value = 129.6543>, fillcolor="#e5813904"] ;
19 -> 20 ;
21 [label=<ppn &le; 6.5<br/>mse = 0.0889<br/>samples = 3<br/>value = 120.68>, fillcolor="#e5813904"] ;
20 -> 21 ;
22 [label=<mse = 0.0<br/>samples = 1<br/>value = 121.17>, fillcolor="#e5813904"] ;
21 -> 22 ;
23 [label=<ppn &le; 9.5<br/>mse = 0.0118<br/>samples = 2<br/>value = 120.5167>, fillcolor="#e5813904"] ;
21 -> 23 ;
24 [label=<mse = 0.0<br/>samples = 1<br/>value = 120.67>, fillcolor="#e5813904"] ;
23 -> 24 ;
25 [label=<mse = 0.0<br/>samples = 1<br/>value = 120.44>, fillcolor="#e5813904"] ;
23 -> 25 ;
26 [label=<ppn &le; 8.0<br/>mse = 0.0032<br/>samples = 2<br/>value = 141.62>, fillcolor="#e5813905"] ;
20 -> 26 ;
27 [label=<mse = 0.0<br/>samples = 1<br/>value = 141.54>, fillcolor="#e5813905"] ;
26 -> 27 ;
28 [label=<mse = 0.0<br/>samples = 1<br/>value = 141.66>, fillcolor="#e5813905"] ;
26 -> 28 ;
29 [label=<sizeGB &le; 4.25<br/>mse = 180.6744<br/>samples = 3<br/>value = 196.92>, fillcolor="#e5813907"] ;
19 -> 29 ;
30 [label=<mse = 0.0<br/>samples = 1<br/>value = 173.64>, fillcolor="#e5813906"] ;
29 -> 30 ;
31 [label=<ppn &le; 6.5<br/>mse = 0.0288<br/>samples = 2<br/>value = 204.68>, fillcolor="#e5813907"] ;
29 -> 31 ;
32 [label=<mse = 0.0<br/>samples = 1<br/>value = 204.44>, fillcolor="#e5813907"] ;
31 -> 32 ;
33 [label=<mse = 0.0<br/>samples = 1<br/>value = 204.8>, fillcolor="#e5813907"] ;
31 -> 33 ;
34 [label=<sizeGB &le; 1.35<br/>mse = 1401016.1967<br/>samples = 30<br/>value = 2050.6023>, fillcolor="#e5813952"] ;
0 -> 34 [labeldistance=2.5, labelangle=-45, headlabel="False"] ;
35 [label=<sizeGB &le; 0.415<br/>mse = 263339.5072<br/>samples = 13<br/>value = 948.7055>, fillcolor="#e5813925"] ;
34 -> 35 ;
36 [label=<ppn &le; 6.5<br/>mse = 34.1308<br/>samples = 5<br/>value = 427.7475>, fillcolor="#e5813910"] ;
35 -> 36 ;
37 [label=<mse = 9.4468<br/>samples = 2<br/>value = 433.5167>, fillcolor="#e5813911"] ;
36 -> 37 ;
38 [label=<ppn &le; 9.5<br/>mse = 16.9893<br/>samples = 3<br/>value = 424.286>, fillcolor="#e5813910"] ;
36 -> 38 ;
39 [label=<mse = 2.3409<br/>samples = 2<br/>value = 426.23>, fillcolor="#e5813910"] ;
38 -> 39 ;
40 [label=<mse = 0.0<br/>samples = 1<br/>value = 416.51>, fillcolor="#e5813910"] ;
38 -> 40 ;
41 [label=<ppn &le; 3.5<br/>mse = 137323.9384<br/>samples = 8<br/>value = 1296.0108>, fillcolor="#e5813934"] ;
35 -> 41 ;
42 [label=<mse = 0.1406<br/>samples = 2<br/>value = 854.825>, fillcolor="#e5813922"] ;
41 -> 42 ;
43 [label=<sizeGB &le; 0.705<br/>mse = 60002.1326<br/>samples = 6<br/>value = 1516.6038>, fillcolor="#e581393c"] ;
41 -> 43 ;
44 [label=<mse = 6.1952<br/>samples = 2<br/>value = 1771.7>, fillcolor="#e5813947"] ;
43 -> 44 ;
45 [label=<sizeGB &le; 1.025<br/>mse = 33528.5621<br/>samples = 4<br/>value = 1363.546>, fillcolor="#e5813936"] ;
43 -> 45 ;
46 [label=<ppn &le; 9.5<br/>mse = 292.945<br/>samples = 3<br/>value = 1272.3125>, fillcolor="#e5813933"] ;
45 -> 46 ;
47 [label=<ppn &le; 6.5<br/>mse = 48.2817<br/>samples = 2<br/>value = 1281.5633>, fillcolor="#e5813933"] ;
46 -> 47 ;
48 [label=<mse = 0.0<br/>samples = 1<br/>value = 1291.39>, fillcolor="#e5813933"] ;
47 -> 48 ;
49 [label=<mse = 0.0<br/>samples = 1<br/>value = 1276.65>, fillcolor="#e5813933"] ;
47 -> 49 ;
50 [label=<mse = 0.0<br/>samples = 1<br/>value = 1244.56>, fillcolor="#e5813931"] ;
46 -> 50 ;
51 [label=<mse = -0.0<br/>samples = 1<br/>value = 1728.48>, fillcolor="#e5813945"] ;
45 -> 51 ;
52 [label=<sizeGB &le; 1.85<br/>mse = 678134.6661<br/>samples = 17<br/>value = 2866.8222>, fillcolor="#e5813973"] ;
34 -> 52 ;
53 [label=<sizeGB &le; 1.6<br/>mse = 32909.744<br/>samples = 8<br/>value = 2337.0779>, fillcolor="#e581395e"] ;
52 -> 53 ;
54 [label=<ppn &le; 6.5<br/>mse = 213.9031<br/>samples = 4<br/>value = 2128.8383>, fillcolor="#e5813955"] ;
53 -> 54 ;
55 [label=<ppn &le; 3.5<br/>mse = 106.3992<br/>samples = 2<br/>value = 2146.565>, fillcolor="#e5813956"] ;
54 -> 55 ;
56 [label=<mse = 0.0<br/>samples = 1<br/>value = 2136.25>, fillcolor="#e5813955"] ;
55 -> 56 ;
57 [label=<mse = 0.0<br/>samples = 1<br/>value = 2156.88>, fillcolor="#e5813956"] ;
55 -> 57 ;
58 [label=<mse = 31.979<br/>samples = 2<br/>value = 2119.975>, fillcolor="#e5813955"] ;
54 -> 58 ;
59 [label=<ppn &le; 8.0<br/>mse = 516.7694<br/>samples = 4<br/>value = 2493.2575>, fillcolor="#e5813964"] ;
53 -> 59 ;
60 [label=<ppn &le; 3.5<br/>mse = 234.5384<br/>samples = 3<br/>value = 2513.245>, fillcolor="#e5813965"] ;
59 -> 60 ;
61 [label=<mse = 43.8672<br/>samples = 2<br/>value = 2505.0467>, fillcolor="#e5813964"] ;
60 -> 61 ;
62 [label=<mse = 0.0<br/>samples = 1<br/>value = 2537.84>, fillcolor="#e5813966"] ;
60 -> 62 ;
63 [label=<mse = 0.0<br/>samples = 1<br/>value = 2473.27>, fillcolor="#e5813963"] ;
59 -> 63 ;
64 [label=<ppn &le; 3.5<br/>mse = 745313.003<br/>samples = 9<br/>value = 3437.3162>, fillcolor="#e581398a"] ;
52 -> 64 ;
65 [label=<sizeGB &le; 2.15<br/>mse = 1629638.8801<br/>samples = 3<br/>value = 4118.8425>, fillcolor="#e58139a6"] ;
64 -> 65 ;
66 [label=<mse = 0.0<br/>samples = 1<br/>value = 6329.84>, fillcolor="#e58139ff"] ;
65 -> 66 ;
67 [label=<mse = 180.7534<br/>samples = 2<br/>value = 3381.8433>, fillcolor="#e5813988"] ;
65 -> 67 ;
68 [label=<sizeGB &le; 2.15<br/>mse = 54095.7694<br/>samples = 6<br/>value = 3134.4156>, fillcolor="#e581397e"] ;
64 -> 68 ;
69 [label=<ppn &le; 8.0<br/>mse = 3547.1849<br/>samples = 3<br/>value = 2931.286>, fillcolor="#e5813976"] ;
68 -> 69 ;
70 [label=<mse = 43.307<br/>samples = 2<br/>value = 2979.7367>, fillcolor="#e5813978"] ;
69 -> 70 ;
71 [label=<mse = -0.0<br/>samples = 1<br/>value = 2858.61>, fillcolor="#e5813973"] ;
69 -> 71 ;
72 [label=<ppn &le; 6.5<br/>mse = 1233.204<br/>samples = 3<br/>value = 3388.3275>, fillcolor="#e5813988"] ;
68 -> 72 ;
73 [label=<mse = 222.605<br/>samples = 2<br/>value = 3407.18>, fillcolor="#e5813989"] ;
72 -> 73 ;
74 [label=<mse = -0.0<br/>samples = 1<br/>value = 3331.77>, fillcolor="#e5813986"] ;
72 -> 74 ;
}